SNNS network definition file V1.4-3D
generated at Wed Nov  9 08:35:07 2005

network name : image
source files :
no. of units : 144
no. of connections : 2048
no. of unit types : 0
no. of site types : 0


learning function : BackpropBatch
update function   : Topological_Order


unit default section :

act      | bias     | st | subnet | layer | act func | out func
---------|----------|----|--------|-------|----------|-------------
 1.00000 |  0.00000 | i  |      0 |     1 | Act_TanH | Out_Identity 
---------|----------|----|--------|-------|----------|-------------


unit definition section :

no. | typeName | unitName  | act      | bias     | st | position | act func | out func | sites
----|----------|-----------|----------|----------|----|----------|----------|----------|-------
  1 |          | Input_1   |  0.44314 |  0.99764 | i  |  1, 0, 0 |||
  2 |          | Input_2   |  0.44314 | -0.37326 | i  |  2, 0, 0 |||
  3 |          | Input_3   |  0.43529 |  0.47373 | i  |  3, 0, 0 |||
  4 |          | Input_4   |  0.43529 | -0.57927 | i  |  4, 0, 0 |||
  5 |          | Input_5   |  0.43529 |  0.02802 | i  |  5, 0, 0 |||
  6 |          | Input_6   |  0.42745 | -0.33132 | i  |  6, 0, 0 |||
  7 |          | Input_7   |  0.42745 | -0.67994 | i  |  7, 0, 0 |||
  8 |          | Input_8   |  0.42745 |  0.99949 | i  |  8, 0, 0 |||
  9 |          | Input_9   |  0.43529 | -0.33209 | i  |  9, 0, 0 |||
 10 |          | Input_10  |  0.43529 | -0.19526 | i  | 10, 0, 0 |||
 11 |          | Input_11  |  0.42745 | -0.29540 | i  | 11, 0, 0 |||
 12 |          | Input_12  |  0.42745 |  0.91079 | i  | 12, 0, 0 |||
 13 |          | Input_13  |  0.43529 |  0.73627 | i  | 13, 0, 0 |||
 14 |          | Input_14  |  0.42745 | -0.37648 | i  | 14, 0, 0 |||
 15 |          | Input_15  |  0.42745 | -0.92575 | i  | 15, 0, 0 |||
 16 |          | Input_16  |  0.42745 | -0.18554 | i  | 16, 0, 0 |||
 17 |          | Input_17  |  0.42745 |  0.75024 | i  | 17, 0, 0 |||
 18 |          | Input_18  |  0.42745 |  0.88191 | i  | 18, 0, 0 |||
 19 |          | Input_19  |  0.42745 | -0.80963 | i  | 19, 0, 0 |||
 20 |          | Input_20  |  0.42745 |  0.95554 | i  | 20, 0, 0 |||
 21 |          | Input_21  |  0.43529 |  0.27867 | i  | 21, 0, 0 |||
 22 |          | Input_22  |  0.43529 |  0.33242 | i  | 22, 0, 0 |||
 23 |          | Input_23  |  0.43529 | -0.19169 | i  | 23, 0, 0 |||
 24 |          | Input_24  |  0.41961 | -0.74446 | i  | 24, 0, 0 |||
 25 |          | Input_25  |  0.42745 | -0.61343 | i  | 25, 0, 0 |||
 26 |          | Input_26  |  0.42745 | -0.66445 | i  | 26, 0, 0 |||
 27 |          | Input_27  |  0.42745 |  0.44149 | i  | 27, 0, 0 |||
 28 |          | Input_28  |  0.42745 | -0.27619 | i  | 28, 0, 0 |||
 29 |          | Input_29  |  0.43529 |  0.94139 | i  | 29, 0, 0 |||
 30 |          | Input_30  |  0.42745 |  0.46150 | i  | 30, 0, 0 |||
 31 |          | Input_31  |  0.42745 | -0.03824 | i  | 31, 0, 0 |||
 32 |          | Input_32  |  0.41961 |  0.69045 | i  | 32, 0, 0 |||
 33 |          | Input_33  |  0.41961 | -0.18246 | i  | 33, 0, 0 |||
 34 |          | Input_34  |  0.41961 |  0.88657 | i  | 34, 0, 0 |||
 35 |          | Input_35  |  0.42745 |  0.80376 | i  | 35, 0, 0 |||
 36 |          | Input_36  |  0.42745 | -0.08041 | i  | 36, 0, 0 |||
 37 |          | Input_37  |  0.42745 | -0.43313 | i  | 37, 0, 0 |||
 38 |          | Input_38  |  0.42745 |  0.94747 | i  | 38, 0, 0 |||
 39 |          | Input_39  |  0.41961 | -0.92495 | i  | 39, 0, 0 |||
 40 |          | Input_40  |  0.41961 | -0.96635 | i  | 40, 0, 0 |||
 41 |          | Input_41  |  0.41961 |  0.02436 | i  | 41, 0, 0 |||
 42 |          | Input_42  |  0.41961 | -0.98438 | i  | 42, 0, 0 |||
 43 |          | Input_43  |  0.41961 |  0.79318 | i  | 43, 0, 0 |||
 44 |          | Input_44  |  0.41961 | -0.39965 | i  | 44, 0, 0 |||
 45 |          | Input_45  |  0.41961 |  0.84886 | i  | 45, 0, 0 |||
 46 |          | Input_46  |  0.41961 |  0.20641 | i  | 46, 0, 0 |||
 47 |          | Input_47  |  0.41961 |  0.05278 | i  | 47, 0, 0 |||
 48 |          | Input_48  |  0.41176 | -0.27700 | i  | 48, 0, 0 |||
 49 |          | Input_49  |  0.41176 | -0.92477 | i  | 49, 0, 0 |||
 50 |          | Input_50  |  0.41961 |  0.19241 | i  | 50, 0, 0 |||
 51 |          | Input_51  |  0.41961 | -0.64914 | i  | 51, 0, 0 |||
 52 |          | Input_52  |  0.41961 | -0.17003 | i  | 52, 0, 0 |||
 53 |          | Input_53  |  0.41961 | -0.55191 | i  | 53, 0, 0 |||
 54 |          | Input_54  |  0.41961 | -0.57928 | i  | 54, 0, 0 |||
 55 |          | Input_55  |  0.41961 |  0.15443 | i  | 55, 0, 0 |||
 56 |          | Input_56  |  0.41176 | -0.33932 | i  | 56, 0, 0 |||
 57 |          | Input_57  |  0.41176 | -0.65174 | i  | 57, 0, 0 |||
 58 |          | Input_58  |  0.41176 | -0.24844 | i  | 58, 0, 0 |||
 59 |          | Input_59  |  0.41176 |  0.57679 | i  | 59, 0, 0 |||
 60 |          | Input_60  |  0.41961 | -0.94519 | i  | 60, 0, 0 |||
 61 |          | Input_61  |  0.41961 | -0.60599 | i  | 61, 0, 0 |||
 62 |          | Input_62  |  0.41176 | -0.62274 | i  | 62, 0, 0 |||
 63 |          | Input_63  |  0.41176 | -0.36418 | i  | 63, 0, 0 |||
 64 |          | Input_64  |  0.41176 |  0.21111 | i  | 64, 0, 0 |||
 65 |          | Hidden_1  |  0.99880 |  0.08629 | h  |  4, 2, 0 |||
 66 |          | Hidden_2  | -0.99310 | -0.18614 | h  |  5, 2, 0 |||
 67 |          | Hidden_3  |  0.45489 |  1.98471 | h  |  6, 2, 0 |||
 68 |          | Hidden_4  | -0.42229 |  0.10777 | h  |  7, 2, 0 |||
 69 |          | Hidden_5  | -0.98928 | -0.27700 | h  |  8, 2, 0 |||
 70 |          | Hidden_6  |  0.99967 | -0.06049 | h  |  9, 2, 0 |||
 71 |          | Hidden_7  | -0.99999 | -0.12709 | h  | 10, 2, 0 |||
 72 |          | Hidden_8  |  0.99264 |  0.25378 | h  | 11, 2, 0 |||
 73 |          | Hidden_9  | -0.99984 | -0.03913 | h  | 12, 2, 0 |||
 74 |          | Hidden_10 | -0.89061 | -0.12975 | h  | 13, 2, 0 |||
 75 |          | Hidden_11 |  0.95457 |  0.35458 | h  | 14, 2, 0 |||
 76 |          | Hidden_12 | -0.89433 | -0.46336 | h  | 15, 2, 0 |||
 77 |          | Hidden_13 | -0.99985 | -0.30198 | h  | 16, 2, 0 |||
 78 |          | Hidden_14 |  0.92421 |  0.37396 | h  | 17, 2, 0 |||
 79 |          | Hidden_15 | -1.00000 | -0.17259 | h  | 18, 2, 0 |||
 80 |          | Hidden_16 |  1.00000 |  0.08289 | h  | 19, 2, 0 |||
 81 |          | Output_1  |  0.54640 | -0.01344 | o  |  1, 4, 0 |||
 82 |          | Output_2  |  0.54039 |  0.05872 | o  |  2, 4, 0 |||
 83 |          | Output_3  |  0.52793 |  0.02854 | o  |  3, 4, 0 |||
 84 |          | Output_4  |  0.55441 |  0.02762 | o  |  4, 4, 0 |||
 85 |          | Output_5  |  0.52957 | -0.03691 | o  |  5, 4, 0 |||
 86 |          | Output_6  |  0.51822 | -0.02979 | o  |  6, 4, 0 |||
 87 |          | Output_7  |  0.51109 |  0.00457 | o  |  7, 4, 0 |||
 88 |          | Output_8  |  0.49484 | -0.02304 | o  |  8, 4, 0 |||
 89 |          | Output_9  |  0.52520 |  0.03602 | o  |  9, 4, 0 |||
 90 |          | Output_10 |  0.60342 | -0.04112 | o  | 10, 4, 0 |||
 91 |          | Output_11 |  0.54358 |  0.03924 | o  | 11, 4, 0 |||
 92 |          | Output_12 |  0.52632 |  0.01839 | o  | 12, 4, 0 |||
 93 |          | Output_13 |  0.52226 |  0.07067 | o  | 13, 4, 0 |||
 94 |          | Output_14 |  0.49569 | -0.02136 | o  | 14, 4, 0 |||
 95 |          | Output_15 |  0.52339 |  0.01964 | o  | 15, 4, 0 |||
 96 |          | Output_16 |  0.45526 |  0.00773 | o  | 16, 4, 0 |||
 97 |          | Output_17 |  0.48193 |  0.09783 | o  | 17, 4, 0 |||
 98 |          | Output_18 |  0.52277 |  0.01006 | o  | 18, 4, 0 |||
 99 |          | Output_19 |  0.52964 |  0.08630 | o  | 19, 4, 0 |||
100 |          | Output_20 |  0.51622 |  0.04209 | o  | 20, 4, 0 |||
101 |          | Output_21 |  0.46706 |  0.03878 | o  | 21, 4, 0 |||
102 |          | Output_22 |  0.47629 |  0.04116 | o  | 22, 4, 0 |||
103 |          | Output_23 |  0.47492 |  0.04705 | o  | 23, 4, 0 |||
104 |          | Output_24 |  0.49091 |  0.02842 | o  | 24, 4, 0 |||
105 |          | Output_25 |  0.48342 |  0.09585 | o  | 25, 4, 0 |||
106 |          | Output_26 |  0.53000 |  0.10357 | o  | 26, 4, 0 |||
107 |          | Output_27 |  0.46565 |  0.22412 | o  | 27, 4, 0 |||
108 |          | Output_28 |  0.49542 |  0.08240 | o  | 28, 4, 0 |||
109 |          | Output_29 |  0.48579 |  0.05759 | o  | 29, 4, 0 |||
110 |          | Output_30 |  0.47312 |  0.04774 | o  | 30, 4, 0 |||
111 |          | Output_31 |  0.49897 |  0.10871 | o  | 31, 4, 0 |||
112 |          | Output_32 |  0.43088 |  0.15282 | o  | 32, 4, 0 |||
113 |          | Output_33 |  0.54335 |  0.06883 | o  | 33, 4, 0 |||
114 |          | Output_34 |  0.55518 |  0.04147 | o  | 34, 4, 0 |||
115 |          | Output_35 |  0.54335 |  0.06033 | o  | 35, 4, 0 |||
116 |          | Output_36 |  0.49842 |  0.13127 | o  | 36, 4, 0 |||
117 |          | Output_37 |  0.50379 |  0.01286 | o  | 37, 4, 0 |||
118 |          | Output_38 |  0.50226 |  0.07039 | o  | 38, 4, 0 |||
119 |          | Output_39 |  0.50355 | -0.00725 | o  | 39, 4, 0 |||
120 |          | Output_40 |  0.51605 | -0.00435 | o  | 40, 4, 0 |||
121 |          | Output_41 |  0.53245 |  0.08795 | o  | 41, 4, 0 |||
122 |          | Output_42 |  0.52290 |  0.00265 | o  | 42, 4, 0 |||
123 |          | Output_43 |  0.52264 |  0.08364 | o  | 43, 4, 0 |||
124 |          | Output_44 |  0.46238 |  0.14647 | o  | 44, 4, 0 |||
125 |          | Output_45 |  0.49450 |  0.08256 | o  | 45, 4, 0 |||
126 |          | Output_46 |  0.53232 | -0.01001 | o  | 46, 4, 0 |||
127 |          | Output_47 |  0.55565 |  0.04152 | o  | 47, 4, 0 |||
128 |          | Output_48 |  0.53062 |  0.03475 | o  | 48, 4, 0 |||
129 |          | Output_49 |  0.45562 |  0.06717 | o  | 49, 4, 0 |||
130 |          | Output_50 |  0.47068 |  0.14661 | o  | 50, 4, 0 |||
131 |          | Output_51 |  0.54271 |  0.05209 | o  | 51, 4, 0 |||
132 |          | Output_52 |  0.51986 |  0.11515 | o  | 52, 4, 0 |||
133 |          | Output_53 |  0.54930 |  0.04047 | o  | 53, 4, 0 |||
134 |          | Output_54 |  0.49489 |  0.04132 | o  | 54, 4, 0 |||
135 |          | Output_55 |  0.51240 |  0.04372 | o  | 55, 4, 0 |||
136 |          | Output_56 |  0.48590 |  0.00359 | o  | 56, 4, 0 |||
137 |          | Output_57 |  0.41012 |  0.18586 | o  | 57, 4, 0 |||
138 |          | Output_58 |  0.53114 |  0.02363 | o  | 58, 4, 0 |||
139 |          | Output_59 |  0.51045 |  0.13583 | o  | 59, 4, 0 |||
140 |          | Output_60 |  0.50885 |  0.10565 | o  | 60, 4, 0 |||
141 |          | Output_61 |  0.49110 |  0.05908 | o  | 61, 4, 0 |||
142 |          | Output_62 |  0.49111 |  0.06773 | o  | 62, 4, 0 |||
143 |          | Output_63 |  0.48268 |  0.02056 | o  | 63, 4, 0 |||
144 |          | Output_64 |  0.51367 |  0.05624 | o  | 64, 4, 0 |||
----|----------|-----------|----------|----------|----|----------|----------|----------|-------


connection definition section :

target | site | source:weight
-------|------|----------------------------------------------------------------------------------------------------------------
    65 |      |  64:-0.45807,  63: 0.70215,  62:-0.35035,  61:-0.37116,  60: 0.56786,  59: 0.48047,  58: 0.20352,  57:-0.36391,
                 56: 0.34100,  55:-0.44514,  54:-0.22129,  53:-0.42249,  52: 0.50878,  51:-0.77177,  50:-0.38321,  49: 0.28943,
                 48:-0.15117,  47:-0.44146,  46: 0.98072,  45:-0.18037,  44:-0.00414,  43: 0.83053,  42:-0.57326,  41: 0.35281,
                 40:-0.35499,  39: 0.77688,  38:-0.85522,  37:-0.12697,  36:-0.73197,  35: 0.28837,  34: 0.47310,  33:-0.10886,
                 32: 0.19743,  31: 0.33884,  30:-0.30808,  29: 0.86682,  28:-0.16581,  27:-0.85041,  26: 0.51240,  25:-0.07501,
                 24:-0.04965,  23: 0.72280,  22:-0.09742,  21:-0.38562,  20: 0.66422,  19: 0.63312,  18:-0.11967,  17: 0.04279,
                 16: 0.56891,  15:-0.01736,  14:-0.15263,  13: 0.83378,  12: 1.06817,  11: 0.65612,  10: 0.07048,   9: 0.19143,
                  8: 0.27779,   7:-0.11427,   6: 0.51722,   5: 1.20446,   4:-0.05879,   3: 0.17272,   2: 1.19382,   1: 0.56412
    66 |      |  64: 0.09313,  63: 0.50304,  62: 0.29115,  61: 0.42435,  60:-0.65328,  59:-0.93617,  58: 0.30518,  57:-0.37913,
                 56:-0.08518,  55:-0.44385,  54:-0.04029,  53: 0.23849,  52:-0.83496,  51:-0.54066,  50: 0.72885,  49:-1.07005,
                 48: 0.23366,  47: 0.04932,  46: 0.59306,  45: 0.12002,  44: 0.42298,  43: 0.43471,  42:-0.45278,  41: 0.34347,
                 40: 0.42966,  39:-0.44218,  38: 0.23665,  37: 0.46573,  36:-0.75383,  35: 0.71316,  34:-0.96088,  33:-0.15730,
                 32:-0.19490,  31: 0.08920,  30:-0.28239,  29: 0.05064,  28:-0.80914,  27:-0.28284,  26:-1.00370,  25:-0.14183,
                 24: 0.14723,  23: 0.03254,  22: 0.59104,  21:-0.08435,  20: 0.54772,  19: 0.51157,  18:-0.55721,  17: 0.00437,
                 16:-0.74700,  15:-0.49087,  14: 0.10122,  13: 0.81724,  12:-0.96015,  11: 0.22320,  10:-0.99860,   9:-0.69920,
                  8:-0.72788,   7: 0.54344,   6:-0.24457,   5:-0.41149,   4: 0.28201,   3:-0.10937,   2:-0.55149,   1: 0.25571
    67 |      |  64:-0.14614,  63:-0.53982,  62: 0.10581,  61:-0.13608,  60:-0.44721,  59:-0.63455,  58: 1.05346,  57:-0.56303,
                 56:-0.06067,  55: 0.76317,  54: 0.23576,  53: 0.26329,  52: 0.73255,  51:-0.16209,  50: 0.19638,  49:-0.11761,
                 48: 0.31819,  47:-0.02612,  46:-0.19730,  45:-0.19637,  44:-0.58645,  43:-0.14260,  42:-0.73759,  41: 0.12966,
                 40:-0.42033,  39: 0.50279,  38: 0.49936,  37:-0.74364,  36: 0.12530,  35: 0.07257,  34:-0.58057,  33: 0.16634,
                 32: 0.69955,  31: 0.38210,  30:-0.77278,  29: 0.36079,  28:-0.50896,  27:-0.46336,  26:-0.70864,  25:-0.27106,
                 24:-0.06695,  23:-1.04009,  22:-0.65886,  21:-0.41285,  20: 0.56831,  19:-0.48881,  18: 0.75792,  17:-0.18335,
                 16:-0.77111,  15: 0.88282,  14:-0.04634,  13:-0.34806,  12: 0.05685,  11:-0.65937,  10: 0.11897,   9: 0.29252,
                  8: 0.69917,   7:-0.02956,   6:-0.07026,   5: 0.26222,   4: 0.28330,   3:-0.51808,   2: 0.04961,   1: 0.37632
    68 |      |  64:-0.10636,  63: 0.09448,  62:-0.70435,  61:-0.57645,  60: 0.03680,  59:-0.67377,  58: 0.13910,  57:-0.07419,
                 56:-1.16680,  55: 0.44830,  54:-0.68625,  53:-0.27114,  52: 0.54113,  51:-0.66306,  50:-0.12011,  49:-0.17547,
                 48: 0.31523,  47:-0.70491,  46:-0.70221,  45:-0.10466,  44: 0.84940,  43:-0.43890,  42:-0.51488,  41: 0.76393,
                 40: 0.63352,  39:-0.78986,  38: 0.93030,  37:-0.88704,  36:-0.75573,  35: 0.76378,  34:-0.57186,  33:-0.58465,
                 32: 0.17071,  31: 0.03317,  30: 0.67701,  29: 0.45972,  28: 0.57560,  27: 0.42961,  26: 0.57959,  25: 0.46501,
                 24: 0.05784,  23: 0.32005,  22: 0.66474,  21:-0.18964,  20: 0.75047,  19:-0.64765,  18: 0.18394,  17:-0.59261,
                 16:-0.21102,  15: 0.62793,  14:-0.93706,  13: 0.59865,  12:-1.10035,  11:-0.11704,  10: 0.48257,   9: 0.46864,
                  8:-0.71706,   7: 0.62871,   6:-0.16360,   5: 0.02481,   4: 0.43055,   3: 0.27748,   2:-0.19915,   1: 0.20826
    69 |      |  64:-0.15720,  63:-0.13750,  62: 0.61033,  61:-0.81691,  60: 0.16542,  59:-0.81707,  58: 0.68296,  57: 0.16856,
                 56:-0.01483,  55: 0.06223,  54:-0.57873,  53:-0.93353,  52: 0.52444,  51: 0.08990,  50:-0.27677,  49:-0.21859,
                 48:-0.06766,  47:-0.08308,  46:-0.01133,  45: 0.16361,  44:-0.74597,  43: 0.44896,  42: 0.68948,  41:-0.55648,
                 40:-0.29340,  39:-0.29387,  38:-0.48736,  37: 0.11282,  36: 0.06440,  35:-0.52390,  34:-0.55215,  33: 0.35674,
                 32: 0.13931,  31: 0.16698,  30:-0.16758,  29:-0.72854,  28: 0.16309,  27: 0.03635,  26: 0.35817,  25: 0.62569,
                 24: 0.43200,  23:-0.31234,  22:-0.14503,  21: 0.64511,  20:-0.80267,  19:-0.08351,  18: 0.06577,  17:-0.98277,
                 16: 0.14455,  15:-0.71073,  14:-0.63427,  13: 0.07110,  12: 0.24141,  11: 0.52227,  10:-0.04827,   9: 0.29961,
                  8:-0.63077,   7: 0.39774,   6:-0.56071,   5: 0.26296,   4:-0.53773,   3: 0.01847,   2:-0.22082,   1:-0.07635
    70 |      |  64: 0.57673,  63:-0.32522,  62: 0.07879,  61: 0.35319,  60: 0.24959,  59: 0.75690,  58: 0.80120,  57: 0.31683,
                 56: 0.51588,  55:-0.34602,  54: 0.46968,  53: 0.70056,  52:-0.17792,  51:-0.38094,  50: 0.56138,  49:-0.08144,
                 48: 0.07139,  47:-0.66048,  46: 0.42120,  45:-0.72107,  44: 0.54328,  43:-0.35982,  42: 0.10300,  41: 1.08839,
                 40:-0.24430,  39: 0.92751,  38: 0.56451,  37:-0.08064,  36: 0.08155,  35: 0.56107,  34: 0.43038,  33:-0.42503,
                 32: 0.73159,  31:-0.60416,  30:-0.27163,  29: 0.04565,  28:-0.34720,  27:-0.51930,  26: 1.15178,  25: 0.03843,
                 24:-0.67137,  23:-0.13234,  22:-0.20673,  21: 0.54117,  20: 0.69572,  19:-0.28973,  18:-0.26668,  17: 0.71918,
                 16: 0.27630,  15: 0.13905,  14:-0.08746,  13: 0.50593,  12:-0.64330,  11: 0.77857,  10: 0.65995,   9: 0.70185,
                  8: 0.47431,   7: 0.52663,   6:-0.79004,   5: 0.62203,   4:-0.11555,   3: 0.34151,   2:-0.31577,   1: 0.37741
    71 |      |  64:-0.15723,  63: 0.29564,  62:-0.10955,  61: 0.12482,  60:-0.53070,  59:-0.29103,  58:-0.03653,  57:-0.68713,
                 56:-0.80031,  55:-0.92244,  54: 0.65630,  53:-1.12951,  52:-0.40040,  51: 0.00808,  50:-0.02727,  49:-0.21149,
                 48:-0.29123,  47:-0.54511,  46:-0.68818,  45: 0.60778,  44:-0.50434,  43:-0.14774,  42: 0.56304,  41:-0.45014,
                 40: 0.21847,  39:-0.57183,  38: 0.67069,  37:-0.72761,  36:-0.00247,  35:-0.74284,  34: 0.38103,  33:-0.54794,
                 32: 0.27735,  31:-0.88341,  30:-0.94458,  29:-0.01204,  28: 0.67172,  27: 0.03164,  26: 0.62273,  25:-0.46036,
                 24:-0.40132,  23: 0.72334,  22:-0.82083,  21:-0.67974,  20: 0.39680,  19:-0.62465,  18:-0.29325,  17:-0.18786,
                 16:-0.55066,  15: 0.12830,  14:-0.44972,  13:-0.17620,  12: 0.27008,  11:-0.41640,  10:-0.73399,   9: 0.11528,
                  8:-0.46293,   7:-0.61638,   6: 0.22790,   5:-0.49802,   4:-0.79843,   3: 0.08539,   2:-0.36155,   1: 0.04710
    72 |      |  64: 0.01337,  63: 0.63516,  62: 0.06543,  61:-0.02655,  60:-0.38356,  59: 0.34662,  58:-0.69379,  57: 0.81213,
                 56: 0.10902,  55: 0.01727,  54: 0.23029,  53: 0.06067,  52:-0.12603,  51: 0.27330,  50: 0.49989,  49:-0.51857,
                 48: 0.38858,  47: 0.00316,  46:-0.07858,  45: 0.20510,  44:-0.15597,  43:-0.04432,  42: 0.26968,  41:-0.34233,
                 40: 0.76348,  39: 0.71754,  38: 0.52071,  37:-0.77466,  36:-0.12454,  35: 0.30256,  34:-0.49381,  33: 0.87520,
                 32: 0.08089,  31:-0.18361,  30:-0.34809,  29: 0.83186,  28: 0.13845,  27: 0.11311,  26: 0.29112,  25:-0.65343,
                 24: 0.66508,  23: 0.00307,  22:-0.12442,  21:-0.29265,  20: 0.48807,  19:-0.15244,  18: 0.30647,  17: 0.28368,
                 16: 0.61941,  15:-0.47536,  14: 0.88679,  13:-0.43697,  12:-0.49384,  11:-0.52063,  10: 0.05488,   9: 0.42293,
                  8: 0.47042,   7:-0.28697,   6: 0.14232,   5: 0.20322,   4: 0.01235,   3: 0.35006,   2: 0.25330,   1: 0.03039
    73 |      |  64:-0.09812,  63:-0.07831,  62:-0.76592,  61: 0.14735,  60:-0.45809,  59: 0.20031,  58: 0.36695,  57:-0.53967,
                 56:-0.60333,  55:-0.67371,  54: 0.06014,  53:-0.03924,  52:-0.73428,  51:-0.67659,  50: 0.04572,  49: 0.00543,
                 48:-0.52982,  47:-0.06745,  46:-0.03862,  45: 0.31111,  44: 0.85823,  43: 0.05090,  42:-0.25471,  41:-0.01774,
                 40:-0.03332,  39:-0.16760,  38:-0.44282,  37:-1.01446,  36:-0.62787,  35:-0.39116,  34: 0.86936,  33:-0.24409,
                 32: 0.09298,  31:-0.26900,  30:-0.49337,  29: 0.11689,  28: 0.17364,  27:-0.13086,  26:-0.95365,  25: 0.40650,
                 24:-0.80677,  23: 0.35695,  22:-0.88587,  21: 0.31618,  20: 0.32434,  19: 0.38865,  18:-0.29083,  17:-0.26365,
                 16:-0.10087,  15:-1.02668,  14: 0.33548,  13:-0.41078,  12: 0.00147,  11:-0.15186,  10:-0.80883,   9: 0.33225,
                  8:-0.48450,   7: 0.34863,   6:-0.71072,   5:-0.55311,   4:-0.00567,   3:-0.58817,   2: 0.57311,   1:-0.24876
    74 |      |  64:-0.40587,  63: 0.46641,  62: 0.36817,  61: 0.46556,  60:-0.89930,  59:-0.30501,  58: 0.57503,  57:-0.34888,
                 56: 0.60305,  55:-0.63242,  54:-0.08943,  53:-0.27021,  52: 0.78557,  51: 0.06335,  50:-0.09090,  49: 0.15233,
                 48:-0.00154,  47:-0.24535,  46: 0.37043,  45:-0.54009,  44: 0.18401,  43:-0.83144,  42:-0.84582,  41:-0.07731,
                 40: 0.02942,  39:-0.51275,  38: 0.46181,  37:-0.44899,  36: 0.16600,  35:-0.37533,  34:-0.02575,  33:-0.46628,
                 32: 0.37101,  31:-0.40762,  30: 0.02089,  29: 0.15490,  28:-0.55417,  27: 0.82508,  26: 0.50377,  25:-0.35110,
                 24: 0.00694,  23:-0.32749,  22: 0.12226,  21: 0.41439,  20:-0.52086,  19:-0.36936,  18:-0.32976,  17:-0.26095,
                 16: 0.09755,  15: 0.57431,  14: 0.15910,  13: 0.50217,  12: 0.04357,  11:-0.18721,  10:-0.62492,   9: 0.84518,
                  8: 0.29636,   7:-0.04569,   6:-0.12006,   5:-0.53288,   4: 0.14350,   3:-0.22961,   2: 0.16087,   1:-0.69651
    75 |      |  64:-0.59968,  63: 0.49217,  62:-0.54623,  61: 0.37346,  60:-0.57594,  59: 0.60670,  58:-0.31796,  57: 0.43378,
                 56: 0.40007,  55:-0.44297,  54: 0.75303,  53:-0.42258,  52: 0.74331,  51:-0.25136,  50: 0.72855,  49:-0.43818,
                 48: 0.17231,  47:-1.00900,  46: 0.27645,  45:-0.39647,  44: 0.59254,  43: 0.39929,  42: 0.04219,  41: 0.42325,
                 40: 0.33253,  39: 0.35186,  38:-0.04888,  37: 0.21716,  36: 0.53836,  35: 0.35809,  34:-0.23135,  33: 0.03952,
                 32:-0.25907,  31: 0.08617,  30:-0.01682,  29: 0.05580,  28:-0.72219,  27:-0.78897,  26: 0.01433,  25: 0.57618,
                 24:-0.48077,  23: 0.82797,  22:-0.00146,  21: 0.53479,  20: 0.31025,  19: 0.15005,  18:-0.17370,  17: 0.02029,
                 16: 0.36549,  15:-0.82349,  14:-0.23894,  13: 0.71574,  12:-0.55079,  11: 0.00423,  10: 0.49937,   9: 0.18412,
                  8: 0.38485,   7:-0.10561,   6:-0.21732,   5:-0.72578,   4: 0.59413,   3: 0.07413,   2: 0.32135,   1:-0.07183
    76 |      |  64: 0.44704,  63: 0.31357,  62:-0.66446,  61: 0.26912,  60: 0.16654,  59: 0.18404,  58: 0.20541,  57:-0.58700,
                 56:-0.36799,  55:-0.07287,  54: 0.32652,  53:-0.06433,  52:-0.78980,  51: 0.20346,  50:-0.37241,  49: 0.11625,
                 48:-0.13092,  47: 0.77434,  46:-0.69064,  45: 0.31069,  44: 0.14996,  43:-0.31135,  42: 0.50965,  41: 0.13372,
                 40:-0.21489,  39:-0.48857,  38: 0.26812,  37: 0.42975,  36: 0.03617,  35: 0.52473,  34:-0.59103,  33:-0.47816,
                 32: 0.47647,  31: 0.58111,  30:-0.04777,  29:-0.25261,  28:-0.42080,  27:-0.53906,  26:-0.05203,  25: 0.31394,
                 24:-0.04064,  23:-0.37579,  22: 0.27269,  21:-0.79654,  20:-0.00289,  19:-0.27261,  18: 0.04463,  17:-0.14247,
                 16: 0.22572,  15:-0.29584,  14:-0.21797,  13: 0.56911,  12: 0.63608,  11: 0.57716,  10:-0.50938,   9:-0.69690,
                  8:-0.57916,   7: 0.05474,   6: 0.69555,   5:-0.69538,   4:-0.61561,   3: 0.44777,   2:-0.64077,   1: 0.48447
    77 |      |  64: 0.86908,  63:-0.96262,  62: 0.55762,  61: 0.30574,  60:-0.50320,  59:-0.69589,  58:-0.58465,  57:-0.47017,
                 56:-0.44875,  55: 0.51003,  54:-0.27092,  53:-0.27781,  52:-0.63153,  51:-0.21692,  50: 0.02327,  49:-0.59020,
                 48: 0.06102,  47: 0.02856,  46: 0.55435,  45:-0.45014,  44:-0.53789,  43:-0.62786,  42:-0.66372,  41:-0.48846,
                 40:-0.25202,  39: 0.30260,  38: 0.42038,  37: 0.38636,  36:-0.70710,  35: 0.34487,  34:-0.54100,  33: 0.19497,
                 32:-0.37467,  31:-0.84393,  30:-0.45391,  29: 0.57929,  28:-0.69711,  27: 0.53048,  26: 0.00455,  25:-0.02398,
                 24: 0.34881,  23: 0.57590,  22:-0.46221,  21:-0.97980,  20:-0.86430,  19: 0.58533,  18:-0.39795,  17:-0.12141,
                 16:-0.04695,  15:-0.45363,  14: 0.35896,  13:-0.18304,  12: 0.18016,  11: 0.41593,  10:-0.39402,   9:-0.22846,
                  8:-0.86152,   7: 0.42339,   6: 0.51468,   5:-0.21677,   4:-0.19016,   3:-0.37253,   2:-0.57864,   1:-0.84345
    78 |      |  64: 0.14172,  63:-0.15215,  62:-0.28151,  61: 0.26697,  60:-0.43796,  59:-0.09573,  58: 0.11748,  57: 0.11683,
                 56:-0.26768,  55: 0.32089,  54:-0.72190,  53: 0.37402,  52: 0.15212,  51: 0.45403,  50: 0.10230,  49: 0.62641,
                 48: 0.24013,  47: 0.58419,  46:-0.52539,  45: 0.21239,  44: 0.30797,  43: 0.14579,  42:-0.16400,  41: 0.12831,
                 40:-0.22819,  39: 0.62556,  38:-0.34116,  37: 0.24047,  36:-0.08743,  35:-0.43827,  34: 0.58375,  33:-0.14094,
                 32: 0.14034,  31:-0.67293,  30: 0.12082,  29:-0.04124,  28: 0.47329,  27: 0.01320,  26:-0.32118,  25:-0.40021,
                 24:-0.04562,  23: 0.39744,  22: 0.33141,  21: 0.24889,  20: 0.42012,  19:-0.21070,  18: 0.09307,  17: 0.37129,
                 16: 0.38431,  15:-0.12591,  14:-0.10674,  13: 0.20744,  12:-0.71784,  11: 0.14962,  10: 0.25245,   9: 0.16490,
                  8:-0.53482,   7: 0.74459,   6:-0.60675,   5: 0.36269,   4:-0.09625,   3: 0.17045,   2: 0.12806,   1:-0.22252
    79 |      |  64:-0.60182,  63:-0.39446,  62:-0.38119,  61:-0.63853,  60:-0.50049,  59:-0.15852,  58:-0.48748,  57:-0.65756,
                 56:-0.67011,  55:-0.78042,  54:-0.83132,  53:-0.24366,  52:-1.12854,  51:-0.20498,  50:-0.32908,  49:-1.26348,
                 48:-0.09798,  47:-0.74960,  46: 0.09944,  45:-0.11028,  44:-0.89814,  43:-0.30060,  42:-0.62965,  41:-0.90776,
                 40:-1.31644,  39:-0.61053,  38:-0.87284,  37:-0.15383,  36:-0.65047,  35:-0.56160,  34:-0.12066,  33:-0.88991,
                 32: 0.09356,  31:-0.60522,  30:-1.31529,  29: 0.05949,  28:-0.11296,  27:-0.71131,  26: 0.24231,  25:-0.18770,
                 24:-0.90351,  23: 0.10999,  22: 0.00017,  21:-1.46216,  20:-0.05812,  19:-1.07842,  18:-0.89845,  17: 0.29173,
                 16:-0.01434,  15:-0.14022,  14:-1.04786,  13: 0.13481,  12:-1.08445,  11: 0.00910,  10:-1.12152,   9:-0.80074,
                  8:-0.59102,   7:-0.84895,   6: 0.12141,   5:-0.29067,   4:-0.00621,   3:-0.62573,   2: 0.29306,   1:-0.62180
    80 |      |  64: 0.06229,  63: 0.69810,  62: 0.20518,  61: 0.52935,  60: 0.30832,  59: 0.98489,  58: 0.12210,  57: 0.79651,
                 56: 0.98243,  55:-0.17929,  54: 0.08367,  53: 1.07197,  52: 0.92680,  51: 0.14778,  50:-0.24821,  49:-0.22387,
                 48:-0.20793,  47: 0.60111,  46: 0.90974,  45: 0.87010,  44:-0.66263,  43: 0.83343,  42: 0.78493,  41: 0.59612,
                 40: 1.02817,  39: 0.91432,  38:-0.03236,  37:-0.31077,  36: 0.79262,  35: 0.68015,  34: 0.17305,  33:-0.05131,
                 32:-0.45713,  31: 0.74093,  30: 0.43917,  29: 1.38339,  28: 0.69470,  27:-0.03023,  26: 0.83949,  25: 0.13392,
                 24: 0.83456,  23: 0.86638,  22: 0.21321,  21:-0.01760,  20: 0.33468,  19: 0.73641,  18: 0.56979,  17: 0.04124,
                 16: 0.75056,  15: 0.57077,  14: 0.38595,  13: 0.70319,  12: 0.28248,  11: 0.36624,  10: 0.20303,   9: 1.07135,
                  8: 0.09611,   7: 0.07929,   6: 0.29502,   5: 1.16431,   4: 0.43039,   3: 0.49510,   2: 0.09835,   1:-0.12500
    81 |      |  80:-0.11138,  79:-0.23102,  78:-0.34090,  77: 0.49412,  76:-0.24186,  75: 0.35549,  74:-0.22245,  73:-0.19316,
                 72: 0.12462,  71: 0.52055,  70: 0.29963,  69:-0.10364,  68: 0.11275,  67:-0.11644,  66:-0.15859,  65: 0.30748
    82 |      |  80:-0.25760,  79: 0.42547,  78:-0.36506,  77: 0.21211,  76: 0.09536,  75: 0.42146,  74:-0.02998,  73: 0.36557,
                 72: 0.29219,  71:-0.51920,  70: 0.32368,  69:-0.24493,  68: 0.14765,  67:-0.20556,  66:-0.18469,  65: 0.39810
    83 |      |  80:-0.22232,  79: 0.40213,  78: 0.15623,  77: 0.51129,  76:-0.48272,  75: 0.45012,  74: 0.27299,  73: 0.02204,
                 72: 0.05512,  71:-0.46908,  70:-0.10355,  69: 0.01102,  68:-0.08716,  67:-0.26464,  66:-0.06765,  65: 0.56146
    84 |      |  80:-0.05334,  79: 0.81546,  78:-0.24010,  77:-0.10344,  76:-0.04583,  75: 0.03984,  74:-0.45371,  73:-0.10497,
                 72: 0.17640,  71:-0.56034,  70: 0.13287,  69: 0.01280,  68: 0.06448,  67:-0.14495,  66: 0.44835,  65: 0.67996
    85 |      |  80:-0.36387,  79:-0.18620,  78:-0.33399,  77:-0.19567,  76:-0.82176,  75:-0.35556,  74:-0.16220,  73:-0.52189,
                 72:-0.07316,  71: 0.34325,  70: 0.00673,  69:-0.25571,  68:-0.01578,  67:-0.15563,  66: 0.34832,  65: 0.42211
    86 |      |  80:-0.30786,  79: 0.11099,  78: 0.39360,  77: 0.02203,  76:-0.38002,  75:-0.52983,  74:-0.10051,  73:-0.46062,
                 72:-0.31126,  71:-0.10063,  70: 0.01959,  69:-0.27402,  68:-0.02325,  67:-0.11907,  66: 0.12595,  65: 0.38420
    87 |      |  80:-0.64456,  79:-0.05013,  78:-0.42367,  77:-0.05749,  76:-0.19857,  75: 0.28148,  74: 0.31922,  73:-0.54791,
                 72: 0.11998,  71: 0.06030,  70:-0.10401,  69:-0.48433,  68: 0.02443,  67:-0.16079,  66:-0.14321,  65: 0.28598
    88 |      |  80:-0.33383,  79: 0.31117,  78:-0.23331,  77:-0.29386,  76:-0.54478,  75:-0.39362,  74: 0.57197,  73:-0.18627,
                 72: 0.69364,  71: 0.25380,  70:-0.15303,  69:-0.44683,  68:-0.24066,  67:-0.12798,  66:-0.38983,  65: 0.18986
    89 |      |  80:-0.51389,  79:-0.25605,  78: 0.25628,  77: 0.21677,  76:-0.17548,  75: 0.01357,  74: 0.15662,  73: 0.35868,
                 72: 0.41024,  71: 0.44567,  70: 0.27420,  69:-0.35819,  68: 0.03930,  67:-0.23741,  66:-0.31773,  65: 0.33284
    90 |      |  80:-0.32401,  79:-0.46560,  78: 0.16829,  77: 0.47643,  76:-0.52383,  75:-0.62553,  74:-0.75991,  73:-0.33764,
                 72:-0.28648,  71: 0.32436,  70: 0.25553,  69:-0.03831,  68: 0.01325,  67:-0.05065,  66: 0.03091,  65: 0.40834
    91 |      |  80:-0.30654,  79:-0.11109,  78:-0.08993,  77:-0.12455,  76:-0.58562,  75:-0.71466,  74:-0.71093,  73:-0.34531,
                 72:-0.04948,  71:-0.13853,  70: 0.15204,  69: 0.27056,  68: 0.00664,  67:-0.17902,  66: 0.44284,  65: 0.45488
    92 |      |  80:-0.22558,  79:-0.11720,  78: 0.22544,  77: 0.63275,  76:-0.25284,  75: 0.81746,  74: 0.26099,  73: 0.14397,
                 72: 0.26904,  71: 0.25846,  70: 0.10864,  69:-0.37735,  68: 0.23985,  67:-0.32389,  66: 0.25845,  65: 0.48464
    93 |      |  80:-0.06755,  79: 0.52944,  78:-0.12365,  77:-0.13062,  76: 0.01838,  75: 0.29643,  74: 0.07176,  73:-0.22611,
                 72:-0.02140,  71:-0.07532,  70: 0.12425,  69:-0.34556,  68: 0.08345,  67:-0.25232,  66: 0.24392,  65: 0.53350
    94 |      |  80: 0.20428,  79: 0.60258,  78: 0.36007,  77: 0.54259,  76:-0.38294,  75: 0.66700,  74: 0.58676,  73:-0.19581,
                 72:-0.17268,  71:-0.26462,  70: 0.02861,  69:-0.34516,  68: 0.07618,  67:-0.25629,  66: 0.16278,  65: 0.36818
    95 |      |  80: 0.04327,  79: 0.03995,  78: 0.43588,  77: 0.01647,  76: 0.07087,  75:-0.25576,  74: 0.20208,  73:-0.62305,
                 72: 0.09932,  71: 0.58914,  70:-0.09298,  69:-0.09631,  68:-0.03033,  67:-0.12231,  66:-0.30492,  65: 0.26475
    96 |      |  80:-0.10389,  79: 0.22455,  78: 0.58549,  77: 0.38145,  76:-0.14518,  75:-0.08871,  74: 0.49334,  73:-0.16963,
                 72: 0.49423,  71:-0.19006,  70:-0.09779,  69: 0.15093,  68:-0.08256,  67:-0.18647,  66:-0.33573,  65: 0.16009
    97 |      |  80:-0.01762,  79: 0.51827,  78:-0.34449,  77: 0.21541,  76:-0.65130,  75: 0.09608,  74: 0.28340,  73: 0.56743,
                 72: 0.21137,  71:-0.63619,  70: 0.27757,  69:-0.38267,  68: 0.05886,  67:-0.36839,  66:-0.40518,  65:-0.06922
    98 |      |  80: 0.19871,  79:-0.39819,  78:-0.18277,  77: 0.64365,  76:-0.87191,  75: 0.28574,  74:-0.28681,  73:-0.49533,
                 72:-0.18881,  71: 0.43617,  70: 0.10400,  69: 0.36085,  68: 0.06207,  67:-0.28295,  66: 0.15898,  65: 0.17204
    99 |      |  80: 0.12389,  79: 0.26386,  78: 0.17625,  77: 0.44071,  76:-0.19568,  75: 0.01933,  74:-0.49487,  73: 0.11787,
                 72: 0.07288,  71:-0.39427,  70: 0.22016,  69:-0.06215,  68: 0.32463,  67:-0.33262,  66: 0.23648,  65: 0.18001
   100 |      |  80: 0.11561,  79: 0.46538,  78: 0.06440,  77: 0.05917,  76:-0.35517,  75:-0.08460,  74:-0.45176,  73: 0.05273,
                 72: 0.17046,  71:-0.30196,  70: 0.11851,  69:-0.12039,  68: 0.13723,  67:-0.27707,  66: 0.49871,  65: 0.26281
   101 |      |  80: 0.26389,  79: 0.19612,  78: 0.67018,  77:-0.06863,  76:-0.77705,  75: 0.11947,  74: 0.64181,  73:-0.15422,
                 72:-0.32273,  71: 0.49188,  70:-0.19618,  69:-0.53613,  68:-0.00204,  67:-0.43427,  66: 0.35142,  65: 0.34424
   102 |      |  80: 0.05728,  79: 0.30296,  78: 0.33421,  77: 0.28480,  76:-0.20236,  75: 0.46147,  74: 0.26587,  73:-0.17147,
                 72: 0.03514,  71:-0.10871,  70: 0.00803,  69:-0.39585,  68: 0.28221,  67:-0.35804,  66: 0.25379,  65: 0.13347
   103 |      |  80:-0.18991,  79:-0.30529,  78: 0.28406,  77:-0.17465,  76:-0.33293,  75:-0.30362,  74:-0.07373,  73:-0.41972,
                 72: 0.39269,  71: 0.63617,  70:-0.23344,  69:-0.26199,  68: 0.14920,  67:-0.29718,  66: 0.29658,  65: 0.13700
   104 |      |  80:-0.13626,  79:-0.01150,  78: 0.75780,  77: 0.52118,  76: 0.51326,  75: 0.39344,  74: 0.20232,  73:-0.37471,
                 72: 0.31819,  71: 0.27540,  70:-0.04951,  69:-0.04984,  68: 0.08783,  67:-0.17685,  66:-0.21816,  65: 0.20420
   105 |      |  80:-0.40956,  79:-0.37708,  78:-0.46737,  77: 0.17691,  76:-0.76619,  75: 0.53309,  74: 0.03766,  73: 0.07321,
                 72: 0.28565,  71: 0.20555,  70: 0.18680,  69:-0.11696,  68: 0.07306,  67:-0.40748,  66: 0.22832,  65: 0.04811
   106 |      |  80:-0.27758,  79:-0.25224,  78: 0.35585,  77: 0.14651,  76:-0.20419,  75:-0.29111,  74:-0.26324,  73:-0.05155,
                 72: 0.15915,  71: 0.45070,  70: 0.20330,  69:-0.18573,  68: 0.05913,  67:-0.30621,  66:-0.15669,  65: 0.05327
   107 |      |  80: 0.36513,  79: 0.18128,  78:-0.04103,  77:-0.22189,  76:-0.51011,  75:-0.09445,  74: 0.13225,  73:-0.12781,
                 72: 0.23756,  71: 0.23458,  70:-0.25052,  69: 0.22215,  68:-0.07656,  67:-0.51594,  66:-0.20853,  65: 0.00080
   108 |      |  80: 0.42191,  79: 0.48048,  78: 0.72882,  77:-0.44337,  76:-0.53081,  75:-0.70665,  74:-0.08827,  73: 0.06016,
                 72: 0.28530,  71: 0.53728,  70:-0.09167,  69:-0.23238,  68:-0.07515,  67:-0.37851,  66: 0.31869,  65: 0.15682
   109 |      |  80:-0.20888,  79:-0.14601,  78: 0.41527,  77: 0.59396,  76:-0.13328,  75: 0.78093,  74: 0.22504,  73:-0.33700,
                 72:-0.34380,  71:-0.14071,  70:-0.14293,  69:-0.21969,  68: 0.08434,  67:-0.35576,  66: 0.04125,  65: 0.10939
   110 |      |  80: 0.10538,  79: 0.26523,  78: 0.41962,  77: 0.19377,  76:-0.31571,  75:-0.13118,  74:-0.23212,  73:-0.05448,
                 72: 0.23800,  71:-0.26512,  70: 0.04318,  69:-0.24379,  68: 0.26613,  67:-0.34745,  66: 0.44805,  65:-0.05661
   111 |      |  80:-0.14616,  79:-0.33183,  78: 0.30198,  77: 0.42047,  76: 0.31900,  75: 0.73109,  74: 0.39927,  73:-0.06931,
                 72: 0.65644,  71: 0.72425,  70:-0.24631,  69:-0.44052,  68: 0.10093,  67:-0.33772,  66:-0.26831,  65: 0.08151
   112 |      |  80:-0.04374,  79: 0.07080,  78:-0.05434,  77: 0.25180,  76: 0.31856,  75: 0.69898,  74: 0.47374,  73: 0.08070,
                 72: 0.98244,  71:-0.07800,  70:-0.34480,  69: 0.05644,  68:-0.00225,  67:-0.37401,  66:-0.37851,  65:-0.01446
   113 |      |  80:-0.19824,  79:-0.13292,  78: 0.02157,  77: 0.31001,  76:-0.27529,  75:-0.27408,  74:-0.80216,  73: 0.23039,
                 72: 0.31768,  71:-0.31496,  70: 0.40480,  69: 0.38830,  68:-0.00755,  67:-0.18670,  66: 0.23348,  65: 0.08966
   114 |      |  80: 0.45997,  79: 0.14254,  78: 0.54340,  77: 0.49916,  76:-0.08482,  75:-0.20000,  74:-0.79070,  73:-0.35176,
                 72:-0.20362,  71: 0.23510,  70: 0.29702,  69: 0.38772,  68: 0.01198,  67:-0.17016,  66: 0.10083,  65: 0.02944
   115 |      |  80: 0.08171,  79:-0.13356,  78:-0.11534,  77: 0.52714,  76:-0.34929,  75: 0.41316,  74:-0.58939,  73:-0.16129,
                 72: 0.15681,  71: 0.25109,  70: 0.07278,  69:-0.05329,  68: 0.01172,  67:-0.28980,  66: 0.26793,  65:-0.05325
   116 |      |  80:-0.07921,  79:-0.27301,  78:-0.15439,  77: 0.35005,  76:-0.26680,  75: 1.14554,  74: 0.33107,  73:-0.28279,
                 72: 0.09073,  71: 0.47995,  70:-0.22592,  69:-0.12491,  68:-0.09501,  67:-0.43428,  66:-0.02185,  65: 0.02276
   117 |      |  80: 0.26232,  79: 0.02421,  78: 0.17539,  77: 0.42076,  76:-0.40086,  75: 0.63088,  74:-0.15127,  73:-0.37342,
                 72:-0.05179,  71: 0.26763,  70: 0.04800,  69: 0.02788,  68:-0.03377,  67:-0.27759,  66: 0.57059,  65: 0.07056
   118 |      |  80:-0.00780,  79: 0.14825,  78: 0.13999,  77:-0.20623,  76:-0.01478,  75: 0.06518,  74:-0.08131,  73:-0.46615,
                 72: 0.09747,  71: 0.42746,  70: 0.08087,  69:-0.31874,  68:-0.01722,  67:-0.23676,  66: 0.31394,  65: 0.03525
   119 |      |  80: 0.08004,  79:-0.41319,  78:-0.04688,  77: 0.35320,  76:-0.49626,  75: 0.58127,  74: 0.02446,  73:-0.56718,
                 72: 0.24409,  71: 0.75372,  70:-0.05036,  69:-0.11164,  68:-0.08850,  67:-0.20275,  66: 0.66619,  65: 0.08843
   120 |      |  80:-0.04534,  79:-0.16013,  78: 0.47879,  77: 0.06879,  76:-0.10280,  75:-0.40660,  74:-0.16818,  73:-0.34580,
                 72: 0.50828,  71: 0.64786,  70: 0.11882,  69:-0.07799,  68:-0.11703,  67:-0.08481,  66: 0.17750,  65: 0.00025
   121 |      |  80:-0.50328,  79:-0.64023,  78: 0.61129,  77: 0.64911,  76: 0.00979,  75: 0.40937,  74: 0.13978,  73: 0.27564,
                 72:-0.04408,  71: 0.28445,  70: 0.15705,  69:-0.23097,  68:-0.18845,  67:-0.26407,  66:-0.48186,  65:-0.02454
   122 |      |  80:-0.13048,  79:-0.53511,  78: 0.56670,  77: 0.28217,  76:-0.55918,  75:-0.02994,  74:-0.33546,  73:-0.27497,
                 72:-0.02982,  71: 0.67888,  70: 0.09645,  69: 0.20451,  68:-0.24032,  67:-0.22727,  66: 0.28160,  65:-0.01788
   123 |      |  80: 0.04416,  79: 0.23361,  78: 0.38531,  77:-0.28401,  76:-0.36698,  75:-0.32456,  74:-0.47121,  73:-0.13072,
                 72: 0.22425,  71: 0.28905,  70: 0.01125,  69:-0.02427,  68:-0.23165,  67:-0.28103,  66: 0.36148,  65:-0.10300
   124 |      |  80: 0.61271,  79: 0.08267,  78: 0.58212,  77:-0.05076,  76: 0.37341,  75: 0.53956,  74: 0.04230,  73:-0.07107,
                 72:-0.35997,  71: 0.87794,  70:-0.04505,  69:-0.58383,  68:-0.10997,  67:-0.38583,  66:-0.02559,  65:-0.17326
   125 |      |  80:-0.06425,  79: 0.01250,  78: 0.48669,  77:-0.05760,  76: 0.02619,  75: 0.67788,  74: 0.32778,  73: 0.05159,
                 72: 0.21138,  71: 0.58181,  70: 0.09326,  69:-0.49348,  68:-0.18441,  67:-0.33961,  66: 0.49662,  65: 0.10911
   126 |      |  80:-0.13991,  79: 0.14609,  78: 0.42608,  77:-0.42953,  76:-0.61854,  75:-0.51197,  74:-0.23522,  73:-0.16910,
                 72: 0.35045,  71: 0.49203,  70:-0.09490,  69:-0.52847,  68:-0.34895,  67:-0.20149,  66: 0.64772,  65:-0.07323
   127 |      |  80: 0.02542,  79: 0.05576,  78: 0.01446,  77:-0.13042,  76: 0.34519,  75:-0.18915,  74:-0.61680,  73:-0.55942,
                 72: 0.35340,  71: 0.42316,  70: 0.21651,  69: 0.06132,  68:-0.23998,  67:-0.01759,  66: 0.41898,  65: 0.09163
   128 |      |  80:-0.53162,  79:-0.17847,  78: 0.78911,  77: 0.10446,  76: 0.43506,  75:-0.18580,  74:-0.17662,  73:-0.02672,
                 72: 0.64066,  71: 0.36993,  70: 0.11399,  69:-0.30442,  68:-0.22646,  67:-0.08864,  66: 0.21222,  65: 0.14146
   129 |      |  80:-0.12896,  79:-0.65555,  78: 0.94442,  77: 0.41471,  76:-0.18325,  75: 0.45475,  74: 0.63885,  73:-0.13217,
                 72:-0.15847,  71: 0.70773,  70: 0.32206,  69: 0.28891,  68:-0.25412,  67:-0.28913,  66:-0.37548,  65:-0.24145
   130 |      |  80:-0.04744,  79: 0.01982,  78: 0.14695,  77:-0.20688,  76: 0.08769,  75: 0.24586,  74: 0.11784,  73:-0.04637,
                 72: 0.19346,  71: 0.00009,  70: 0.28951,  69: 0.41852,  68:-0.26385,  67:-0.28883,  66:-0.13086,  65:-0.18628
   131 |      |  80: 0.38705,  79: 0.11348,  78: 0.76201,  77: 0.30144,  76: 0.40468,  75: 0.28939,  74:-0.13889,  73:-0.22602,
                 72: 0.06269,  71: 0.69576,  70: 0.24698,  69: 0.25063,  68:-0.36778,  67:-0.11962,  66:-0.12414,  65: 0.02586
   132 |      |  80: 0.23422,  79: 0.19362,  78: 0.15111,  77: 0.18659,  76: 0.59985,  75: 0.79249,  74: 0.01410,  73:-0.12003,
                 72:-0.28484,  71: 0.35178,  70: 0.19769,  69:-0.53042,  68:-0.24559,  67:-0.21493,  66:-0.22666,  65:-0.17928
   133 |      |  80:-0.12477,  79:-0.09434,  78: 0.07830,  77: 0.46080,  76: 0.15667,  75: 0.49031,  74:-0.20124,  73: 0.01236,
                 72:-0.17032,  71: 0.09456,  70: 0.07043,  69:-0.56206,  68:-0.42066,  67:-0.13088,  66:-0.10459,  65:-0.08397
   134 |      |  80:-0.28220,  79:-0.02805,  78:-0.17347,  77:-0.43656,  76:-0.69286,  75:-0.37399,  74:-0.37957,  73:-0.28005,
                 72:-0.01527,  71:-0.06393,  70:-0.06977,  69:-0.34644,  68:-0.47511,  67:-0.21144,  66: 0.72686,  65:-0.10602
   135 |      |  80:-0.20915,  79: 0.05049,  78: 0.13569,  77:-0.02551,  76:-0.01896,  75:-0.03168,  74:-0.20666,  73:-0.39768,
                 72: 0.22617,  71: 0.14344,  70: 0.05059,  69:-0.08060,  68:-0.40271,  67:-0.10582,  66: 0.26811,  65:-0.00443
   136 |      |  80:-0.36908,  79:-0.31652,  78: 0.39399,  77: 0.64985,  76:-0.02348,  75: 0.69153,  74: 0.45875,  73:-0.61981,
                 72: 0.11235,  71: 0.31568,  70: 0.11354,  69:-0.05079,  68:-0.38096,  67:-0.12142,  66:-0.08676,  65:-0.17859
   137 |      |  80:-0.81742,  79:-0.39484,  78: 0.09515,  77:-0.59533,  76:-0.48158,  75:-0.02857,  74: 0.31420,  73: 0.55132,
                 72: 0.50965,  71:-0.27732,  70: 0.48653,  69: 0.13370,  68:-0.29245,  67:-0.43416,  66: 0.40355,  65:-0.24593
   138 |      |  80: 0.14065,  79: 0.13692,  78: 0.78485,  77: 0.55509,  76: 0.28973,  75: 0.43240,  74:-0.15649,  73: 0.12894,
                 72:-0.32789,  71:-0.19402,  70: 0.53624,  69: 0.16734,  68:-0.34354,  67:-0.08555,  66: 0.11810,  65: 0.00199
   139 |      |  80: 0.07474,  79: 0.30676,  78: 0.08736,  77:-0.54931,  76:-0.02990,  75:-0.13704,  74: 0.18462,  73: 0.14535,
                 72: 0.08136,  71: 0.28836,  70: 0.34685,  69:-0.28165,  68:-0.49307,  67:-0.22303,  66: 0.01886,  65:-0.06250
   140 |      |  80: 0.17523,  79: 0.26025,  78: 0.48297,  77:-0.36200,  76:-0.12578,  75:-0.51783,  74:-0.19217,  73:-0.19907,
                 72:-0.21269,  71: 0.21864,  70: 0.12434,  69:-0.05893,  68:-0.54227,  67:-0.18307,  66: 0.12902,  65:-0.02659
   141 |      |  80:-0.07450,  79:-0.25770,  78:-0.02695,  77: 0.15093,  76:-0.30550,  75: 0.50003,  74: 0.08551,  73:-0.22346,
                 72: 0.06313,  71: 0.53885,  70: 0.22385,  69:-0.15450,  68:-0.46837,  67:-0.21461,  66: 0.44780,  65: 0.01735
   142 |      |  80:-0.05754,  79:-0.25552,  78: 0.21540,  77:-0.00876,  76:-0.21917,  75:-0.18672,  74:-0.21046,  73:-0.37882,
                 72: 0.04726,  71: 0.49378,  70: 0.17819,  69:-0.08382,  68:-0.47252,  67:-0.16584,  66: 0.37293,  65:-0.08803
   143 |      |  80:-0.09941,  79:-0.11824,  78: 0.45179,  77:-0.18584,  76:-0.47934,  75:-0.51809,  74:-0.07216,  73:-0.52835,
                 72: 0.13303,  71: 0.52123,  70: 0.16536,  69:-0.00337,  68:-0.52869,  67:-0.12502,  66: 0.48363,  65:-0.10863
   144 |      |  80:-0.42866,  79:-0.09339,  78: 0.30801,  77:-0.04782,  76: 0.30304,  75:-0.22468,  74:-0.56409,  73:-0.14802,
                 72: 0.67368,  71: 0.07012,  70: 0.47184,  69: 0.02519,  68:-0.37257,  67:-0.05218,  66: 0.87265,  65: 0.03707
-------|------|----------------------------------------------------------------------------------------------------------------
